/*!
 * The following copyright notice may not be removed under any circumstances.
 * 
 * Copyright:
 * (c) Copyright 1997, 1998 The Font Bureau, Inc. and Leslie Cabarga. All rights
 * reserved.
 * 
 * Description:
 * Leslie Cabarga turned to the geometric, streamlined scripts prepared by
 * American industrial designers for the inspiration of this series. In its three
 * variation of letter spacing, Magneto recalls the chrome-strip lettering laid
 * along the rounded shapes of refrigerator doors and automobile trunks in the
 * forties and fifties; FB 1995.
 * 
 * Manufacturer:
 * The Font Bureau, Inc.
 * 
 * Designer:
 * Leslie Cabarga
 * 
 * Vendor URL:
 * http://www.fontbureau.com
 */
Cufon.registerFont({"w":778,"face":{"font-family":"Magneto","font-weight":700,"font-stretch":"semi-expanded","units-per-em":"2048","panose-1":"4 3 8 5 5 8 2 2 13 2","ascent":"1633","descent":"-415","x-height":"16","bbox":"-553 -1559 2773 618","underline-thickness":"120","underline-position":"-200","unicode-range":"U+0020-U+007E"},"glyphs":{" ":{"w":782},"!":{"d":"1087,-1407r-499,965r-236,0r240,-965r495,0xm410,-322v100,0,192,81,192,179v0,99,-92,178,-194,178v-101,0,-193,-80,-193,-178v0,-99,92,-179,195,-179","w":920},"\"":{"d":"965,-1407r-232,453r-182,2r119,-455r295,0xm563,-1407r-231,453r-182,2r118,-455r295,0","w":963},"#":{"d":"1528,-975r-66,148r-272,0r-88,243r272,0r-67,154r-256,0r-156,432r-205,0r154,-432r-289,0r-156,432r-204,-2r153,-432r-321,0r71,-152r299,0r88,-243r-321,0r72,-150r296,0r156,-432r207,0r-156,434r297,0r156,-434r197,0r-154,434r293,0xm989,-827r-295,0r-88,243r297,0","w":1368},"$":{"d":"1380,-1403v152,-5,293,115,293,260v0,201,-259,330,-446,221r-82,189v69,99,169,260,169,387v0,207,-207,351,-423,346r-72,197r-106,0r71,-197r-227,0r-70,190r-106,0r70,-192v-172,21,-324,-104,-326,-258v-2,-146,142,-260,293,-260v76,0,141,22,194,67r84,-227v-130,-139,-195,-275,-195,-408v0,-36,5,-71,15,-106v40,-144,194,-215,447,-213r47,-135r86,0r-47,135r245,0r47,-129r86,0xm1143,-993v-54,-60,-65,-133,-47,-221v-96,-24,-177,5,-177,107v0,59,16,108,48,149r112,143xm690,-164v121,34,216,-38,216,-155v0,-104,-84,-212,-140,-283r-84,229v35,75,39,132,8,209","w":1589},"%":{"d":"438,-1427v108,0,209,86,209,190v0,106,-100,193,-209,193v-108,0,-209,-87,-209,-191v0,-106,100,-192,209,-192xm1167,-1407r-888,1407r-234,0r877,-1407r245,0xm831,-356v110,0,209,85,209,192v0,105,-101,191,-209,191v-108,0,-208,-86,-208,-191v0,-106,99,-192,208,-192","w":1192},"&":{"d":"483,0v-225,3,-418,-94,-417,-299v0,-125,60,-234,179,-327v83,-65,204,-126,363,-185r-78,-225v-78,-254,225,-391,482,-391v285,0,428,95,428,284v0,94,-47,176,-140,245v-57,43,-160,96,-311,161r205,577r393,0v3,98,-115,160,-221,160r-883,0xm1024,-1239v-80,2,-187,67,-152,160r50,149v157,-70,235,-136,235,-198v0,-69,-64,-112,-133,-111xm836,-160r-154,-440v-150,82,-225,175,-225,278v0,108,70,162,211,162r168,0","w":1585},"'":{"d":"563,-1407r-231,453r-182,2r118,-455r295,0","w":492},"(":{"d":"1055,-1536v-220,165,-520,562,-572,858v-58,328,-26,642,103,881r-158,0v-161,-177,-242,-407,-242,-692v0,-425,223,-774,670,-1047r199,0"},")":{"d":"494,-1536v194,210,282,529,223,889v-55,337,-278,618,-651,846r-199,0v218,-163,520,-563,571,-854v57,-324,27,-640,-102,-881r158,0"},"*":{"d":"813,-1214r-147,0r100,90r-88,80r-98,-91r0,121r-125,0r0,-127r-105,97r-88,-80r100,-90r-129,0r0,-113r134,0r-99,-88r88,-80r99,90r0,-133r125,0r0,127r92,-84r88,80r-98,88r151,0r0,113","w":967},"+":{"d":"1263,-791r-93,254r-442,0r-164,447r-278,0r162,-447r-443,0r92,-254r443,0r166,-446r280,0r-166,446r443,0","w":1229},",":{"d":"584,-252r-246,387r-154,0r138,-387r262,0","w":561},"-":{"d":"809,-582r-88,254r-674,0r88,-254r674,0","w":1042},"\u2010":{"d":"809,-582r-88,254r-674,0r88,-254r674,0","w":1042},".":{"d":"410,-289v91,0,174,72,174,160v0,88,-83,160,-174,160v-92,0,-174,-71,-174,-160v0,-89,82,-160,174,-160","w":623},"\/":{"d":"1155,-1407r-770,1407r-215,0r770,-1407r215,0","w":999},"0":{"d":"856,-1405v364,0,610,253,610,617v0,456,-306,804,-755,804v-363,0,-611,-250,-611,-614v0,-452,310,-807,756,-807xm1038,-903v0,-198,-58,-297,-174,-297v-113,0,-203,97,-269,291v-50,147,-75,292,-75,436v0,197,59,295,176,295v114,0,204,-97,269,-290v49,-145,73,-290,73,-435","w":1581},"1":{"d":"692,-1407v150,-5,204,143,154,285r-393,1122r-363,0r395,-1153r-317,0r133,-254r391,0","w":954},"2":{"d":"481,-928v-135,2,-264,-107,-264,-239v0,-111,53,-183,156,-225v130,-53,605,-46,734,3v155,59,236,162,236,324v0,179,-91,346,-274,500v-154,130,-329,221,-526,274r684,0r-103,291r-1044,0r86,-285v149,-61,302,-159,459,-295v188,-163,282,-308,282,-434v0,-136,-51,-200,-164,-196v34,164,-113,279,-262,282","w":1468},"3":{"d":"895,-432v0,-174,-187,-325,-354,-336r290,-354r-546,0r110,-285r1026,0r-346,504v122,60,256,219,256,381v0,439,-439,575,-936,553v-135,-6,-266,-110,-266,-246v0,-134,128,-240,264,-240v168,0,321,154,248,328v147,-5,254,-147,254,-305","w":1421},"4":{"d":"516,-1427v145,0,268,115,268,260v0,61,-28,122,-84,182r-284,305r405,0r266,-727r363,0r-254,727r262,0r-104,285r-258,0r-144,395r-360,0r141,-395r-522,0v-153,11,-191,-125,-111,-211r328,-355v-95,-27,-176,-114,-178,-227v-3,-134,129,-239,266,-239","w":1577},"5":{"d":"889,-463v-5,-171,-162,-244,-359,-244r-266,0r246,-700r899,0r-121,285r-514,0r-88,241v203,-6,392,12,494,99v184,158,160,401,-11,575v-188,191,-485,273,-835,227v-125,-16,-242,-111,-242,-243v0,-133,127,-240,264,-240v167,0,320,152,250,326v145,-11,288,-170,283,-326","w":1399},"6":{"d":"1059,-889v203,0,344,147,344,350v0,345,-308,568,-666,568v-333,0,-628,-200,-628,-518v0,-197,85,-383,256,-558v132,-135,306,-255,520,-360r289,0v-196,150,-341,283,-435,399v-143,177,-215,355,-215,535v0,171,95,305,258,305v133,0,219,-66,258,-197v5,-15,10,-30,17,-45v-136,2,-264,-107,-264,-239v0,-135,128,-240,266,-240","w":1481},"7":{"d":"1229,-1407r-314,727r191,0r-76,160r-184,0r-223,520r-361,0r227,-520r-215,0r76,-160r201,0r199,-442r-439,0r-51,104r-199,0r158,-389r1010,0","w":1247},"8":{"d":"505,-1334v314,-193,910,-100,910,300v0,119,-62,219,-186,299v75,86,112,180,112,282v0,288,-316,478,-622,478v-363,0,-619,-143,-621,-478v0,-173,90,-309,271,-409v-111,-179,-41,-363,136,-472xm1042,-1063v34,-86,-21,-172,-106,-172v-72,0,-122,40,-150,121r-88,258v111,1,227,6,274,-57v17,-23,39,-73,70,-150xm514,-338v-41,105,36,186,137,186v88,0,147,-46,178,-137r132,-391v-130,4,-260,-20,-326,57v-52,60,-85,193,-121,285","w":1481},"9":{"d":"631,-449v-292,1,-525,-180,-525,-464v0,-293,245,-512,539,-512v405,0,608,167,608,528v0,195,-80,378,-239,548v-133,141,-302,257,-506,347r-309,0v201,-149,345,-298,432,-447xm713,-621v68,-69,159,-314,159,-446v0,-133,-46,-199,-137,-199v-130,0,-231,239,-231,383v0,124,98,250,209,262","w":1348},":":{"d":"463,-709v91,0,174,72,174,160v0,89,-85,160,-176,160v-90,0,-172,-72,-172,-160v0,-88,83,-160,174,-160xm369,-289v91,0,174,72,174,160v0,88,-83,160,-174,160v-92,0,-174,-71,-174,-160v0,-89,82,-160,174,-160"},";":{"d":"483,-709v91,0,174,72,174,160v0,89,-83,160,-176,160v-91,0,-174,-72,-174,-160v0,-89,85,-160,176,-160xm551,-252r-246,387r-153,0r137,-387r262,0"},"<":{"d":"1290,-1053r-43,203r-741,291r618,291r-43,202r-864,-409r37,-168","w":1229},"=":{"d":"1331,-879v-27,109,-151,220,-278,220r-701,0r119,-220r860,0xm322,-328v16,-94,175,-219,278,-219r700,0r-118,219r-860,0","w":1229},">":{"d":"1278,-643r-37,168r-1036,409r43,-202r741,-291r-618,-291r43,-203","w":1229},"?":{"d":"78,-1167v0,-134,130,-240,266,-240r373,0v339,0,508,116,506,348v-1,123,-67,223,-196,300v-74,45,-189,88,-345,130r-84,187r-356,0r69,-189v19,-49,57,-89,120,-105r151,-38v180,-60,270,-156,270,-289v0,-149,-79,-176,-252,-172v51,174,-98,307,-256,307v-137,0,-266,-107,-266,-239xm379,-322v101,0,192,80,192,179v0,99,-92,178,-194,178v-101,0,-193,-80,-193,-178v0,-99,93,-179,195,-179","w":1141},"@":{"d":"1044,-1423v379,0,687,189,687,544v0,262,-214,489,-474,482r-239,0v-97,0,-146,-31,-146,-92v-61,72,-143,108,-245,108v-138,0,-230,-92,-230,-229v0,-250,221,-398,484,-398r497,0r-168,467r111,0v137,7,268,-189,268,-333v0,-277,-278,-433,-575,-433v-397,0,-785,301,-785,689v0,316,273,507,605,507v183,0,352,-52,509,-155r113,80v-173,137,-387,206,-641,206v-383,0,-747,-255,-747,-622v0,-36,3,-69,8,-100v61,-417,486,-721,968,-721xm999,-864r-192,0v-13,35,-39,114,-80,237v-17,48,1,78,57,86r101,0","w":1798},"A":{"d":"285,88v-185,0,-359,-80,-357,-246v0,-73,31,-143,90,-213v173,-204,549,-311,947,-309r194,0r606,-727r482,0r-258,727r784,0v-34,107,-115,160,-244,160r-594,0r-188,520r-358,0r188,-520r-307,0v-336,405,-664,608,-985,608xm1841,-1241r-438,561r223,0xm1024,-520v-250,0,-425,36,-526,108v-83,60,-125,124,-125,191v0,57,30,86,90,86v178,0,476,-254,561,-385","w":2257},"B":{"d":"1118,-399v0,-61,-100,-155,-78,-215v11,-30,50,-58,109,-86v82,-39,142,-76,180,-109v64,-55,96,-119,96,-192v0,-103,-78,-154,-235,-154r-1170,0r154,-252r1167,0v153,0,268,21,345,62v94,51,141,135,141,253v0,98,-52,190,-155,275v-62,51,-156,108,-283,170v151,257,78,460,-211,571v-260,100,-645,70,-1000,76r361,-1026r360,0r-307,866v133,2,256,-9,347,-40v119,-41,179,-107,179,-199","w":1686},"C":{"d":"1343,-1407v124,-5,250,120,250,244v0,135,-130,245,-268,245v-158,0,-308,-133,-262,-305v-270,-14,-553,370,-553,650v0,275,180,413,539,413r503,0v-21,107,-102,160,-243,160r-369,0v-230,0,-417,-33,-560,-100v-197,-92,-294,-242,-292,-449v1,-116,39,-231,107,-348v165,-284,526,-507,948,-510r200,0","w":1546},"D":{"d":"1130,-1407v332,-5,615,159,615,467v0,122,-44,250,-127,387v-195,322,-624,551,-1122,553r-330,0r362,-1026r361,0r-307,866v285,0,575,-212,673,-420v50,-106,80,-192,80,-262v-2,-229,-120,-313,-360,-313r-967,0r154,-252r968,0","w":1780},"E":{"d":"1399,-1407v129,-1,243,113,243,240v0,133,-127,239,-266,239v-163,0,-312,-147,-250,-319r-118,0v-74,-3,-136,79,-136,153v0,56,64,213,64,269v0,37,-39,75,-116,112v-111,53,-183,94,-216,121v-78,65,-117,151,-117,258v0,80,45,132,136,156v45,12,122,18,233,18r729,0v-13,97,-128,160,-244,160r-821,0v-242,4,-477,-95,-475,-309v0,-119,59,-227,178,-325v97,-80,212,-138,344,-175v-105,-224,-66,-414,149,-521v174,-87,426,-74,683,-77","w":1587},"F":{"d":"-2,-862v0,-344,307,-545,670,-545r1298,0r-154,252r-354,0r-166,475r322,0v-9,105,-73,159,-191,160r-188,2r-78,221v-69,198,-207,297,-412,297r-700,0v29,-75,54,-128,77,-159v46,-62,89,-92,161,-81r467,74r346,-989r-572,0v-167,-4,-344,121,-344,281v0,57,19,90,58,98v20,-115,135,-203,268,-203v138,0,262,103,262,240v0,155,-142,245,-307,245v-250,0,-463,-133,-463,-368","w":1679},"G":{"d":"1419,-1407v134,-4,267,111,267,242v0,134,-130,239,-267,239v-159,0,-309,-133,-256,-309v-334,-25,-639,354,-639,672v0,268,215,407,500,403r186,-520r373,0r-248,709v-57,170,-221,239,-458,221r92,-250v-232,0,-420,-37,-567,-101v-319,-139,-373,-486,-193,-790v174,-293,542,-514,987,-516r223,0","w":1765},"H":{"d":"344,178v-220,1,-400,-96,-399,-299v0,-81,27,-163,82,-246v138,-209,392,-313,761,-313r146,0r309,-879r359,0r-314,879r344,0r256,-727r361,0r-258,727r757,0v-19,107,-92,160,-221,160r-592,0r-184,520r-360,0r186,-520r-338,0v-189,465,-488,696,-895,698xm877,-520v-280,-14,-566,155,-564,403v0,86,38,129,115,129v96,0,191,-67,285,-202v70,-101,125,-211,164,-330","w":2251},"I":{"d":"-2,-862v0,-345,307,-545,672,-545r880,0r-391,1110v-69,198,-207,297,-414,297r-700,0v29,-75,54,-128,77,-159v46,-62,89,-92,161,-81r467,74r350,-989r-578,0v-166,-4,-342,121,-342,281v0,57,19,90,58,98v20,-115,135,-203,268,-203v138,0,262,103,262,240v0,155,-142,245,-307,245v-250,0,-463,-133,-463,-368","w":1473},"J":{"d":"-2,-862v0,-344,307,-545,670,-545r880,0r-346,987v-85,242,-215,429,-390,560v-149,111,-303,167,-464,167v-180,0,-340,-87,-342,-250v-2,-133,128,-239,266,-239v151,0,293,118,263,280v64,-27,120,-84,168,-171v27,-48,59,-125,96,-230r301,-852r-576,0v-167,-4,-344,121,-344,281v0,57,19,90,58,98v20,-115,135,-203,268,-203v138,0,262,103,262,240v0,155,-142,245,-307,245v-250,0,-463,-133,-463,-368","w":1470},"K":{"d":"1987,-1407r-818,727r76,0v136,-6,160,105,121,217r-106,303r415,0v-31,107,-128,160,-291,160r-350,0v-120,3,-167,-63,-135,-160r133,-399r-522,465v-71,63,-152,94,-244,94r-168,0r408,-1155r-559,0r153,-252r623,0v163,-5,195,100,151,231r-243,721r1044,-952r312,0","w":1671},"L":{"d":"1905,-1430v153,0,290,97,290,244v0,133,-131,240,-266,240v-150,0,-280,-117,-264,-271v-21,-3,-53,6,-96,25v-95,43,-152,201,-174,475v-22,271,-180,456,-473,557r1185,0v-29,107,-118,160,-268,160r-1835,0v56,-161,125,-242,207,-242v62,0,323,88,387,88v115,0,208,-104,281,-313r159,-461v116,-335,405,-502,867,-502","w":2109},"M":{"d":"1989,-1026v69,0,134,65,134,140v0,29,-7,60,-20,95r-239,631r450,0v-28,107,-121,160,-278,160r-359,0v-161,0,-193,-66,-147,-186r166,-432r-496,544v-53,59,-112,89,-175,89v-90,0,-152,-37,-152,-117v0,-26,6,-54,18,-84r246,-635r-617,745v-41,51,-102,76,-182,76r-203,0r404,-1155r-555,0r151,-252r668,0v139,-3,157,85,119,195r-215,620r430,-487v105,-117,137,-168,315,-168v65,0,124,59,124,130v0,29,-7,62,-22,99r-194,504r385,-387v103,-96,92,-125,244,-125","w":2312},"N":{"d":"2066,-1438v138,0,269,106,269,240v0,134,-130,240,-267,240v-71,0,-132,-22,-182,-66r-332,922v-31,89,-86,133,-163,133v-104,0,-166,-45,-185,-135r-166,-787r-225,666v-39,126,-179,225,-340,225r-475,0v29,-73,54,-125,75,-155v39,-58,85,-87,138,-87v57,0,236,41,293,41v70,0,120,-43,149,-129r308,-893v26,-77,49,-127,67,-149v32,-40,81,-60,148,-60v101,0,165,71,194,213r137,684r207,-581v77,-215,193,-322,350,-322","w":1954},"O":{"d":"1065,-1407v373,-4,661,167,661,514v0,247,-97,461,-291,644v-188,177,-399,265,-634,265v-335,0,-563,-195,-559,-524v2,-196,103,-396,207,-518r440,0v-132,111,-260,343,-262,563v-2,160,76,305,223,305v125,0,239,-81,340,-243v90,-145,135,-285,135,-418v0,-212,-133,-336,-346,-336r-987,0r153,-252r920,0","w":1815},"P":{"d":"1290,-1407v303,-3,514,73,514,334v0,197,-137,366,-409,508v-182,95,-399,168,-650,217r-122,348r-365,0r365,-1026r362,0r-172,481v129,-29,244,-75,344,-137v139,-87,217,-189,217,-305v0,-146,-77,-168,-248,-168r-1022,0r156,-252r1030,0","w":1640},"Q":{"d":"932,-1464v382,0,661,179,661,534v0,168,-62,325,-185,471v-131,156,-299,256,-503,299r748,0v-27,107,-109,160,-246,160r-1407,0v65,-163,138,-244,221,-244v131,0,243,58,367,84v85,0,181,-48,291,-139v167,-138,306,-358,315,-601v7,-201,-151,-345,-352,-345v-184,0,-354,106,-350,280v54,-59,122,-88,204,-88v139,0,267,107,267,240v0,133,-130,240,-267,240v-232,0,-395,-180,-395,-412v0,-128,52,-237,156,-327v117,-101,275,-152,475,-152","w":1649},"R":{"d":"1761,-160v-2,96,-104,160,-209,160r-385,0v-124,-8,-138,-50,-188,-160r-197,-436v34,-4,308,-109,334,-123v131,-71,199,-155,199,-258v0,-119,-84,-178,-252,-178r-1020,0r156,-252r1007,0v362,0,543,115,543,346v0,195,-188,366,-565,512r180,389r397,0xm924,-1026r-365,1026r-360,0r362,-1026r363,0","w":1761},"S":{"d":"1982,-1407v132,-5,265,113,265,242v0,133,-130,239,-267,239v-156,0,-303,-130,-258,-299v-124,-18,-211,18,-209,123v0,43,29,140,89,291v60,151,90,269,90,354v0,183,-102,318,-303,411v-272,127,-727,131,-1020,24v-200,-73,-301,-183,-301,-332v0,-217,185,-326,555,-326r381,0r73,160r-297,0v-147,-3,-303,61,-303,190v0,145,228,226,395,226v219,0,406,-109,406,-314v0,-130,-164,-492,-164,-624v0,-243,207,-365,621,-365r247,0","w":1972},"T":{"d":"440,-492v-241,0,-442,-160,-442,-397v0,-137,55,-254,165,-352v124,-111,293,-166,507,-166r1296,0r-135,252r-371,0r-305,858v-71,198,-207,297,-410,297r-700,0v29,-75,54,-128,77,-159v46,-62,89,-92,161,-81r467,74r350,-989r-578,0v-166,-4,-342,121,-342,281v0,57,19,90,58,98v31,-118,133,-204,274,-207v143,-3,258,105,256,242v-2,162,-149,249,-328,249","w":1518},"U":{"d":"1370,-1448v158,0,302,109,295,262v-17,395,-284,883,-475,1050v-131,115,-310,171,-533,171v-234,0,-410,-110,-409,-330v0,-51,9,-104,28,-158r250,-702r-559,0r152,-252r858,0r-328,936v-17,51,-26,98,-26,143v-1,100,72,160,174,160v182,0,341,-151,477,-453v53,-117,87,-220,102,-307v-154,4,-299,-111,-299,-260v0,-144,146,-260,293,-260","w":1634},"V":{"d":"1288,-1434v138,0,269,107,266,240v-2,88,-31,169,-92,244r-643,790v-87,107,-184,160,-293,160r-256,0r101,-1155r-463,0r149,-252r484,0v110,0,203,79,190,197r-104,1017r612,-763v-114,-19,-217,-111,-217,-238v0,-133,128,-240,266,-240","w":1384},"W":{"d":"635,-1407v137,0,231,83,215,229r-72,678r477,-757v66,-103,101,-145,244,-150r98,0r0,887r480,-887r239,0r-708,1280v-47,85,-120,127,-217,127r-125,0r0,-889r-492,766v-53,82,-130,123,-233,123r-142,0r105,-1155r-465,0r154,-252r442,0","w":2030},"X":{"d":"1743,-1462v138,0,266,104,266,239v0,134,-128,242,-264,240v-102,-2,-205,-62,-246,-131r-338,354r158,600r522,0v-13,99,-132,160,-252,160r-393,0v-138,0,-228,-95,-262,-211r-68,-231r-319,333v-87,91,-180,136,-279,136v-137,0,-266,-105,-266,-240v0,-134,128,-240,266,-240v111,0,191,46,240,138r305,-320r-123,-520r-497,0r151,-252r420,0v173,0,275,72,305,217r49,236r299,-312v72,-75,119,-120,142,-137v54,-39,115,-59,184,-59","w":1841},"Y":{"d":"924,-1407v121,-6,183,111,141,229r-213,598r588,-753v23,-35,109,-74,164,-74r235,0r-424,1217v-35,107,-142,189,-276,190r-774,0v28,-111,123,-193,256,-193r432,0r211,-593r-301,319v-62,65,-145,98,-248,98v-119,0,-225,-60,-223,-172v0,-27,5,-55,14,-82r211,-591r-180,0v31,168,-109,283,-261,286v-138,2,-266,-106,-266,-239v0,-134,128,-240,264,-240r650,0","w":1726},"Z":{"d":"276,270v-181,0,-311,-112,-301,-295v20,-350,376,-610,730,-647v-35,-69,-92,-134,-170,-194r552,-289r-751,0r151,-252r1041,0v1,176,-43,252,-160,315r-403,218v71,56,120,121,145,194r840,0v-32,107,-94,160,-187,160r-616,0v1,9,2,24,2,43v0,194,-98,369,-295,526v-185,147,-378,221,-578,221xm794,-435v0,-38,-2,-61,-20,-85v-123,14,-293,137,-358,223v-101,133,-154,239,-154,322v0,59,26,88,78,88v96,0,196,-61,299,-183v103,-122,155,-244,155,-365","w":1597},"[":{"d":"969,-1511r-37,104v-63,-1,-120,-1,-150,34v-14,17,-31,47,-47,93r-440,1257v-24,71,-39,125,51,127r60,0r-39,105r-240,0v-150,4,-182,-83,-141,-201r460,-1319v47,-133,142,-200,283,-200r240,0","w":754},"\\":{"d":"709,20r-213,0r-635,-1552r213,0","w":569},"]":{"d":"842,-1313r-461,1319v-47,134,-141,201,-283,201r-239,0r37,-105v63,1,122,2,150,-33v15,-17,30,-48,46,-94r440,-1257v25,-71,40,-125,-51,-127r-59,0r39,-104r239,0v151,-3,183,82,142,200","w":754},"^":{"d":"1145,-365r-207,0r-141,-360r-301,360r-228,0r469,-573r193,0","w":1434},"_":{"d":"1759,338v8,135,-238,280,-383,280r-1929,0v66,-187,250,-280,551,-280r1761,0","w":1384},"`":{"d":"410,-801r-113,0r-242,-309r269,0","w":1024},"a":{"d":"-25,-240v0,-272,237,-440,519,-440r571,0r-188,520r415,0v-32,107,-114,160,-245,160r-379,0v-108,0,-162,-35,-162,-104v-73,83,-162,124,-268,124v-153,0,-263,-107,-263,-260xm647,-520r-221,0v-24,92,-76,172,-76,273v0,58,57,87,170,87","w":1290},"b":{"d":"571,-492v0,-104,99,-188,205,-188r1034,0v-44,107,-118,160,-221,160r-540,0v-36,332,-349,522,-734,520r-182,0v-75,0,-138,-46,-135,-121v0,-25,5,-53,16,-84r357,-1001r360,0r-373,1044v143,3,245,-54,306,-172v-62,-39,-93,-91,-93,-158","w":1198},"c":{"d":"756,-305v-116,-2,-216,-88,-203,-215r-121,0r-78,221v-32,89,11,139,129,139r768,0v-25,96,-120,160,-241,160r-602,0v-222,3,-439,-83,-437,-278v3,-262,256,-400,533,-402r252,0v107,-3,205,82,205,186v0,105,-99,191,-205,189","w":1237},"d":{"d":"-20,-233v0,-282,259,-453,557,-447r208,0r187,-528r364,0r-372,1048r413,0v-33,107,-115,160,-245,160r-381,0v-110,0,-164,-35,-162,-104v-73,86,-172,129,-295,129v-159,0,-274,-101,-274,-258xm690,-520r-254,0v-27,89,-86,168,-86,269v0,45,28,73,85,85v20,4,63,6,128,6","w":1333},"e":{"d":"-35,-293v0,-243,247,-387,506,-387v224,0,487,14,502,197v6,71,-31,131,-103,178r-331,0r108,-215r-211,0r-82,241v-25,79,19,119,123,119r780,0v-23,95,-128,161,-249,160r-557,0v-324,0,-486,-98,-486,-293","w":1251},"f":{"d":"106,-453v-87,-21,-160,-125,-110,-227r188,0r187,-526r360,0r-221,526r999,0v-21,107,-107,160,-258,160r-665,0v61,57,89,156,84,299v-7,169,-97,319,-270,451v-156,119,-306,177,-449,173v-64,-1,-124,-69,-98,-141xm375,-66v34,-100,43,-202,-27,-258r-256,576v94,-44,249,-216,283,-318","w":1051},"g":{"d":"-25,-274v12,-269,225,-406,510,-406r572,0r-183,520r424,0v-31,107,-130,160,-297,160r-178,0v-59,161,-118,278,-177,350v-86,105,-195,158,-327,158v-147,0,-245,-89,-245,-236v0,-145,42,-238,127,-280v-122,-26,-232,-127,-226,-266xm346,-266v-38,103,55,138,164,125r129,-379r-213,0xm463,27v-121,2,-259,240,-121,329","w":1286},"h":{"d":"1368,-160v-25,96,-123,160,-242,160r-426,0v-114,3,-129,-69,-98,-160r72,-213r-379,312v-84,86,-207,56,-354,61r428,-1208r360,0r-301,850r305,-250v79,-65,168,-97,268,-97v103,0,113,100,82,187r-127,358r412,0","w":1368},"i":{"d":"426,-1329v137,0,264,106,264,239v0,134,-127,240,-264,240v-139,0,-266,-105,-266,-240v0,-133,127,-239,266,-239xm762,-160v-25,95,-118,160,-236,160r-395,0v-128,6,-168,-88,-129,-193r174,-487r363,0r-185,520r408,0","w":762},"j":{"d":"506,-1329v137,0,264,106,264,239v0,134,-127,240,-264,240v-139,0,-266,-105,-266,-240v0,-133,127,-239,266,-239xm-313,164v0,-206,168,-331,383,-328r186,-516r362,0r-184,520r428,0v-31,107,-121,160,-270,160r-211,0v-47,141,-96,278,-213,351v-75,46,-160,73,-260,73v-130,0,-221,-125,-221,-260xm20,0v-80,10,-137,84,-137,172v0,47,13,81,39,102","w":858},"k":{"d":"1372,-160v-24,96,-129,160,-250,160r-393,0v-125,5,-160,-78,-123,-178r103,-279v-31,32,-152,145,-367,334v-94,82,-116,123,-250,123r-149,0r426,-1206r360,0r-266,747r399,-397r230,0r-232,240r76,0v130,-4,161,82,123,186r-98,270r411,0","w":1376},"l":{"d":"774,-160v-24,96,-129,160,-250,160r-385,0v-127,2,-172,-61,-137,-160r371,-1046r354,0r-373,1046r420,0","w":766},"m":{"d":"1327,0v-71,-1,-149,-77,-125,-160r66,-215r-338,283v-85,71,-158,106,-219,106v-125,0,-158,-76,-121,-174r80,-215r-398,332v-69,66,-207,37,-331,43r239,-680r361,0r-113,320r307,-252v77,-63,163,-95,258,-95v105,0,138,64,107,148r-72,199r299,-254v73,-62,153,-93,242,-93v121,0,145,89,110,187r-129,360r410,0v-19,107,-95,160,-227,160r-406,0","w":1958},"n":{"d":"1370,-160v-25,96,-129,160,-250,160r-399,0v-127,2,-158,-62,-123,-160r76,-215r-344,291v-81,56,-147,84,-199,84r-184,0r239,-680r361,0r-113,320r305,-250v83,-67,172,-97,269,-97v100,0,113,100,82,187r-129,360r409,0","w":1358},"o":{"d":"-46,-298v0,-266,220,-382,507,-382r1241,0v-27,107,-107,160,-240,160r-626,0v40,21,76,122,71,182v-19,227,-219,354,-477,354v-157,0,-278,-30,-363,-93v-75,-56,-113,-130,-113,-221xm612,-520r-229,0r-90,256v-37,98,57,130,186,123","w":1190},"p":{"d":"1309,-160v-9,99,-117,160,-232,160r-545,0v-82,0,-124,-42,-126,-127v70,-27,154,-59,193,-110v49,-66,73,-186,-5,-243v-35,-26,-72,-41,-113,-40r-313,905r-363,0r451,-1307r362,0r-83,242v150,0,249,9,298,21v186,43,220,254,100,390v-48,54,-99,92,-159,109r535,0","w":1311},"q":{"d":"-18,-243v0,-289,219,-437,514,-437r571,0r-180,520r401,0v-24,96,-129,160,-250,160r-209,0r-141,410r-76,0v-133,1,-239,-126,-188,-271r84,-241v-72,81,-164,122,-275,122v-164,0,-251,-104,-251,-263xm649,-520r-213,0r-76,215v-32,100,25,144,162,145","w":1290},"r":{"d":"-16,-694v0,-149,157,-230,319,-230r162,0r-84,244r553,0r-182,520r419,0v5,89,-124,160,-219,160r-383,0v-131,6,-177,-86,-139,-195r113,-325r-213,0r-111,287v-24,81,-123,75,-227,73r131,-360v-76,-15,-139,-86,-139,-174","w":1171},"s":{"d":"426,-594v-26,-44,-36,-74,-39,-135r246,-262v174,19,204,163,123,284v40,110,120,281,121,400v0,57,-23,106,-68,147r399,0v-3,93,-133,160,-235,160r-760,0v-146,0,-219,-45,-219,-134v0,-97,81,-147,176,-147v72,0,170,42,293,119v74,-110,64,-137,10,-289r-113,103r-200,0","w":1206},"t":{"d":"889,-160v-31,107,-115,160,-250,160r-510,0v-125,3,-171,-62,-137,-160r127,-360r-164,0r63,-160v280,-77,323,-151,465,-401r195,0r-141,401r258,0v-49,126,-151,170,-318,160r-125,360r537,0","w":889},"u":{"d":"164,0v-127,7,-198,-98,-154,-219r168,-461r363,0r-187,520r203,0r186,-520r359,0r-182,520r407,0v-20,91,-106,160,-211,160r-418,0v-98,0,-147,-31,-147,-94v-52,63,-122,94,-211,94r-176,0","w":1323},"v":{"d":"1501,-680v-24,96,-129,160,-250,160r-420,0r-423,520r-400,0r-43,-680r363,0r6,492r375,-492r792,0","w":1044},"w":{"d":"1606,-680r-181,520v-49,107,-132,160,-249,160r-506,0v-89,0,-138,-29,-148,-88v-49,59,-119,88,-211,88r-178,0v-124,3,-171,-63,-137,-160r182,-520r363,0r-187,520r174,0r187,-520r358,0r-182,520r170,0r186,-520r359,0","w":1696},"x":{"d":"1028,-680r-395,289r260,391r-406,0r-129,-190r-262,190r-313,0r469,-346r-227,-334r417,0r86,129r174,-129r326,0","w":997},"y":{"d":"147,0v-104,3,-182,-92,-143,-199r174,-481r363,0r-187,520r203,0r184,-520r361,0r-184,520r413,0v-39,107,-113,160,-221,160r-244,0v-58,157,-119,274,-183,350v-89,105,-200,158,-333,158v-151,0,-252,-90,-252,-238v0,-111,56,-224,125,-270r-76,0xm494,27v-122,2,-260,240,-121,329","w":1327},"z":{"d":"1061,-160v-31,107,-109,160,-232,160r-653,0v-125,0,-188,-33,-188,-98v0,-43,17,-82,51,-117r297,-305r-340,0r55,-160r846,0r-475,520r639,0","w":1059},"{":{"d":"950,-1511r-37,104v-61,-1,-120,-5,-139,37v-74,163,-137,384,-203,561r-211,129r123,123r-186,534v-17,47,-25,79,-25,95v0,39,71,32,115,32r-39,105r-219,0v-150,4,-182,-83,-141,-201r217,-624r-64,-64r133,-131r175,-500v46,-133,140,-200,282,-200r219,0","w":993},"|":{"d":"250,207r-129,0r0,-1716r129,0r0,1716","w":365},"}":{"d":"791,-1311r-218,625r64,63r-133,131r-174,500v-47,134,-141,201,-283,201r-219,0r37,-105v60,1,120,5,139,-36v74,-164,138,-385,203,-562r211,-129r-123,-122r186,-535v17,-47,25,-78,25,-95v0,-39,-71,-32,-115,-32r39,-104r219,0v150,-4,183,83,142,200","w":993},"~":{"d":"1108,-764r-47,186v-125,154,-295,208,-469,101v-164,-101,-350,-71,-469,69r70,-190v105,-155,307,-177,485,-82v182,98,274,59,430,-84","w":1231},"\u00a0":{"w":782}}});
